<?xml version="1.0"?>
<opencv_storage>
<cascade>
  <stageType>BOOST</stageType>
  <featureType>HAAR</featureType>
  <height>20</height>
  <width>20</width>
  <stageParams>
    <boostType>GAB</boostType>
    <minHitRate>9.9500000476837158e-01</minHitRate>
    <maxFalseAlarm>5.0000000000000000e-01</maxFalseAlarm>
    <weightTrimRate>9.4999999999999996e-01</weightTrimRate>
    <maxDepth>1</maxDepth>
    <maxWeakCount>100</maxWeakCount></stageParams>
  <featureParams>
    <maxCatCount>0</maxCatCount>
    <featSize>1</featSize>
    <mode>BASIC</mode></featureParams>
  <stageNum>9</stageNum>
  <stages>
    <!-- stage 0 -->
    <_>
      <maxWeakCount>3</maxWeakCount>
      <stageThreshold>-5.3154808282852173e-01</stageThreshold>
      <weakClassifiers>
        <_>
          <internalNodes>
            0 -1 25 -1.7316639423370361e-02</internalNodes>
          <leafValues>
            7.9113924503326416e-01 -7.4626863002777100e-01</leafValues></_>
        <_>
          <internalNodes>
            0 -1 15 -1.2766359373927116e-02</internalNodes>
          <leafValues>
            8.9111053943634033e-01 -5.5648869276046753e-01</leafValues></_>
        <_>
          <internalNodes>
            0 -1 10 6.5510682761669159e-03</internalNodes>
          <leafValues>
            -6.1021101474761963e-01 7.7120923995971680e-01</leafValues></_></weakClassifiers></_>
    <!-- stage 1 -->
    <_>
      <maxWeakCount>3</maxWeakCount>
      <stageThreshold>-5.4487586021423340e-01</stageThreshold>
      <weakClassifiers>
        <_>
          <internalNodes>
            0 -1 33 -2.4327332153916359e-02</internalNodes>
          <leafValues>
            7.9220777750015259e-01 -6.6197180747985840e-01</leafValues></_>
        <_>
          <internalNodes>
            0 -1 34 2.4655677378177643e-02</internalNodes>
          <leafValues>
            -5.5223500728607178e-01 8.3859372138977051e-01</leafValues></_>
        <_>
          <internalNodes>
            0 -1 14 -8.9036971330642700e-03</internalNodes>
          <leafValues>
            6.6933095455169678e-01 -5.4205816984176636e-01</leafValues></_></weakClassifiers></_>
    <!-- stage 2 -->
    <_>
      <maxWeakCount>4</maxWeakCount>
      <stageThreshold>-4.0065765380859375e-01</stageThreshold>
      <weakClassifiers>
        <_>
          <internalNodes>
            0 -1 32 9.7185159102082253e-03</internalNodes>
          <leafValues>
            -7.5418996810913086e-01 7.2580647468566895e-01</leafValues></_>
        <_>
          <internalNodes>
            0 -1 38 2.6407251134514809e-03</internalNodes>
          <leafValues>
            -6.6513448953628540e-01 6.5159511566162109e-01</leafValues></_>
        <_>
          <internalNodes>
            0 -1 29 -3.9486251771450043e-03</internalNodes>
          <leafValues>
            4.9049198627471924e-01 -7.5279098749160767e-01</leafValues></_>
        <_>
          <internalNodes>
            0 -1 3 1.9244214519858360e-02</internalNodes>
          <leafValues>
            -6.8221920728683472e-01 5.2817487716674805e-01</leafValues></_></weakClassifiers></_>
    <!-- stage 3 -->
    <_>
      <maxWeakCount>5</maxWeakCount>
      <stageThreshold>-4.0810859203338623e-01</stageThreshold>
      <weakClassifiers>
        <_>
          <internalNodes>
            0 -1 20 2.1237324923276901e-02</internalNodes>
          <leafValues>
            -6.2611275911331177e-01 6.5251725912094116e-01</leafValues></_>
        <_>
          <internalNodes>
            0 -1 18 -4.1283279657363892e-02</internalNodes>
          <leafValues>
            7.6148337125778198e-01 -4.1720154881477356e-01</leafValues></_>
        <_>
          <internalNodes>
            0 -1 19 4.5148462057113647e-02</internalNodes>
          <leafValues>
            -7.4946618080139160e-01 4.8015543818473816e-01</leafValues></_>
        <_>
          <internalNodes>
            0 -1 2 1.1250870302319527e-02</internalNodes>
          <leafValues>
            -5.5263382196426392e-01 6.1475032567977905e-01</leafValues></_>
        <_>
          <internalNodes>
            0 -1 28 -1.4372751116752625e-02</internalNodes>
          <leafValues>
            7.4196106195449829e-01 -4.0876331925392151e-01</leafValues></_></weakClassifiers></_>
    <!-- stage 4 -->
    <_>
      <maxWeakCount>5</maxWeakCount>
      <stageThreshold>-4.3451076745986938e-01</stageThreshold>
      <weakClassifiers>
        <_>
          <internalNodes>
            0 -1 6 1.9728492945432663e-02</internalNodes>
          <leafValues>
            -3.3948338031768799e-01 7.8465348482131958e-01</leafValues></_>
        <_>
          <internalNodes>
            0 -1 22 2.5498097762465477e-02</internalNodes>
          <leafValues>
            -4.2491012811660767e-01 7.1018391847610474e-01</leafValues></_>
        <_>
          <internalNodes>
            0 -1 31 -1.2992825359106064e-03</internalNodes>
          <leafValues>
            3.9494988322257996e-01 -7.9672986268997192e-01</leafValues></_>
        <_>
          <internalNodes>
            0 -1 47 -1.6474194824695587e-02</internalNodes>
          <leafValues>
            5.6392860412597656e-01 -5.5893731117248535e-01</leafValues></_>
        <_>
          <internalNodes>
            0 -1 40 -1.0939672589302063e-02</internalNodes>
          <leafValues>
            5.6268399953842163e-01 -5.5040293931961060e-01</leafValues></_></weakClassifiers></_>
    <!-- stage 5 -->
    <_>
      <maxWeakCount>7</maxWeakCount>
      <stageThreshold>-9.2052930593490601e-01</stageThreshold>
      <weakClassifiers>
        <_>
          <internalNodes>
            0 -1 5 -1.7150241881608963e-02</internalNodes>
          <leafValues>
            6.4092278480529785e-01 -5.3541076183319092e-01</leafValues></_>
        <_>
          <internalNodes>
            0 -1 16 -1.7224062234163284e-02</internalNodes>
          <leafValues>
            6.7376208305358887e-01 -4.7175365686416626e-01</leafValues></_>
        <_>
          <internalNodes>
            0 -1 26 -2.7874022722244263e-02</internalNodes>
          <leafValues>
            -8.2191842794418335e-01 3.3158075809478760e-01</leafValues></_>
        <_>
          <internalNodes>
            0 -1 37 -8.5437074303627014e-03</internalNodes>
          <leafValues>
            4.3582457304000854e-01 -5.3167235851287842e-01</leafValues></_>
        <_>
          <internalNodes>
            0 -1 17 -1.6189662739634514e-02</internalNodes>
          <leafValues>
            2.2089087963104248e-01 -8.2111221551895142e-01</leafValues></_>
        <_>
          <internalNodes>
            0 -1 23 8.7148947641253471e-03</internalNodes>
          <leafValues>
            -5.0373667478561401e-01 4.0960636734962463e-01</leafValues></_>
        <_>
          <internalNodes>
            0 -1 44 -2.3615865036845207e-02</internalNodes>
          <leafValues>
            6.3091260194778442e-01 -3.6660486459732056e-01</leafValues></_></weakClassifiers></_>
    <!-- stage 6 -->
    <_>
      <maxWeakCount>8</maxWeakCount>
      <stageThreshold>-9.1735970973968506e-01</stageThreshold>
      <weakClassifiers>
        <_>
          <internalNodes>
            0 -1 30 -1.0970665607601404e-03</internalNodes>
          <leafValues>
            -6.9649803638458252e-01 5.7548034191131592e-01</leafValues></_>
        <_>
          <internalNodes>
            0 -1 48 4.3351976200938225e-03</internalNodes>
          <leafValues>
            -4.6454250812530518e-01 5.1549398899078369e-01</leafValues></_>
        <_>
          <internalNodes>
            0 -1 7 -8.5977114737033844e-02</internalNodes>
          <leafValues>
            8.6100226640701294e-01 -1.9970022141933441e-01</leafValues></_>
        <_>
          <internalNodes>
            0 -1 21 3.7511367350816727e-02</internalNodes>
          <leafValues>
            -4.1492292284965515e-01 6.7052417993545532e-01</leafValues></_>
        <_>
          <internalNodes>
            0 -1 9 3.4279186278581619e-02</internalNodes>
          <leafValues>
            -4.5942431688308716e-01 5.2628409862518311e-01</leafValues></_>
        <_>
          <internalNodes>
            0 -1 8 -1.4544364064931870e-02</internalNodes>
          <leafValues>
            7.6800185441970825e-01 -3.1854107975959778e-01</leafValues></_>
        <_>
          <internalNodes>
            0 -1 11 -7.3731085285544395e-03</internalNodes>
          <leafValues>
            3.7201905250549316e-01 -5.8458137512207031e-01</leafValues></_>
        <_>
          <internalNodes>
            0 -1 41 -3.8258843123912811e-03</internalNodes>
          <leafValues>
            2.6647540926933289e-01 -7.0149463415145874e-01</leafValues></_></weakClassifiers></_>
    <!-- stage 7 -->
    <_>
      <maxWeakCount>8</maxWeakCount>
      <stageThreshold>-1.0912796258926392e+00</stageThreshold>
      <weakClassifiers>
        <_>
          <internalNodes>
            0 -1 46 1.9116625189781189e-02</internalNodes>
          <leafValues>
            -1.9237434864044189e-01 7.2574383020401001e-01</leafValues></_>
        <_>
          <internalNodes>
            0 -1 4 -9.0333949774503708e-03</internalNodes>
          <leafValues>
            4.4264090061187744e-01 -5.4589211940765381e-01</leafValues></_>
        <_>
          <internalNodes>
            0 -1 24 -2.3294974118471146e-02</internalNodes>
          <leafValues>
            5.1028919219970703e-01 -4.8266404867172241e-01</leafValues></_>
        <_>
          <internalNodes>
            0 -1 1 5.4392432793974876e-03</internalNodes>
          <leafValues>
            -5.5559313297271729e-01 3.8893461227416992e-01</leafValues></_>
        <_>
          <internalNodes>
            0 -1 13 1.3990190811455250e-02</internalNodes>
          <leafValues>
            -2.5555661320686340e-01 8.4325605630874634e-01</leafValues></_>
        <_>
          <internalNodes>
            0 -1 12 8.0009792000055313e-03</internalNodes>
          <leafValues>
            -6.6165369749069214e-01 3.3317005634307861e-01</leafValues></_>
        <_>
          <internalNodes>
            0 -1 43 -1.4167192857712507e-03</internalNodes>
          <leafValues>
            -9.0013718605041504e-01 1.8747289478778839e-01</leafValues></_>
        <_>
          <internalNodes>
            0 -1 23 8.0060511827468872e-03</internalNodes>
          <leafValues>
            -5.2249956130981445e-01 3.6236959695816040e-01</leafValues></_></weakClassifiers></_>
    <!-- stage 8 -->
    <_>
      <maxWeakCount>8</maxWeakCount>
      <stageThreshold>-6.1791676282882690e-01</stageThreshold>
      <weakClassifiers>
        <_>
          <internalNodes>
            0 -1 27 3.0542291700839996e-02</internalNodes>
          <leafValues>
            -4.3827161192893982e-01 5.7699805498123169e-01</leafValues></_>
        <_>
          <internalNodes>
            0 -1 38 3.6464412696659565e-03</internalNodes>
          <leafValues>
            -5.1927185058593750e-01 3.9666518568992615e-01</leafValues></_>
        <_>
          <internalNodes>
            0 -1 0 4.8409789800643921e-02</internalNodes>
          <leafValues>
            -3.6706107854843140e-01 5.6366193294525146e-01</leafValues></_>
        <_>
          <internalNodes>
            0 -1 42 1.8108929507434368e-03</internalNodes>
          <leafValues>
            2.6344218850135803e-01 -8.3677262067794800e-01</leafValues></_>
        <_>
          <internalNodes>
            0 -1 45 1.9006510265171528e-03</internalNodes>
          <leafValues>
            1.5799100697040558e-01 -9.2318236827850342e-01</leafValues></_>
        <_>
          <internalNodes>
            0 -1 36 -1.4768913388252258e-03</internalNodes>
          <leafValues>
            2.1081911027431488e-01 -7.0467120409011841e-01</leafValues></_>
        <_>
          <internalNodes>
            0 -1 39 1.2201584875583649e-02</internalNodes>
          <leafValues>
            -2.8312534093856812e-01 6.5231859683990479e-01</leafValues></_>
        <_>
          <internalNodes>
            0 -1 35 2.7092858217656612e-03</internalNodes>
          <leafValues>
            -3.6902177333831787e-01 5.2705258131027222e-01</leafValues></_></weakClassifiers></_></stages>
  <features>
    <_>
      <rects>
        <_>
          0 3 6 9 -1.</_>
        <_>
          2 3 2 9 3.</_></rects>
      <tilted>0</tilted></_>
    <_>
      <rects>
        <_>
          0 5 2 11 -1.</_>
        <_>
          1 5 1 11 2.</_></rects>
      <tilted>0</tilted></_>
    <_>
      <rects>
        <_>
          0 5 2 14 -1.</_>
        <_>
          1 5 1 14 2.</_></rects>
      <tilted>0</tilted></_>
    <_>
      <rects>
        <_>
          0 5 6 10 -1.</_>
        <_>
          2 5 2 10 3.</_></rects>
      <tilted>0</tilted></_>
    <_>
      <rects>
        <_>
          0 18 17 2 -1.</_>
        <_>
          0 19 17 1 2.</_></rects>
      <tilted>0</tilted></_>
    <_>
      <rects>
        <_>
          1 1 8 8 -1.</_>
        <_>
          1 1 4 4 2.</_>
        <_>
          5 5 4 4 2.</_></rects>
      <tilted>0</tilted></_>
    <_>
      <rects>
        <_>
          1 6 8 6 -1.</_>
        <_>
          1 6 4 3 2.</_>
        <_>
          5 9 4 3 2.</_></rects>
      <tilted>0</tilted></_>
    <_>
      <rects>
        <_>
          2 1 16 6 -1.</_>
        <_>
          2 1 8 3 2.</_>
        <_>
          10 4 8 3 2.</_></rects>
      <tilted>0</tilted></_>
    <_>
      <rects>
        <_>
          2 7 1 8 -1.</_>
        <_>
          2 11 1 4 2.</_></rects>
      <tilted>0</tilted></_>
    <_>
      <rects>
        <_>
          3 14 12 6 -1.</_>
        <_>
          3 16 12 2 3.</_></rects>
      <tilted>0</tilted></_>
    <_>
      <rects>
        <_>
          4 1 11 2 -1.</_>
        <_>
          4 2 11 1 2.</_></rects>
      <tilted>0</tilted></_>
    <_>
      <rects>
        <_>
          4 3 2 8 -1.</_>
        <_>
          4 7 2 4 2.</_></rects>
      <tilted>0</tilted></_>
    <_>
      <rects>
        <_>
          4 9 9 3 -1.</_>
        <_>
          7 9 3 3 3.</_></rects>
      <tilted>0</tilted></_>
    <_>
      <rects>
        <_>
          4 16 5 2 -1.</_>
        <_>
          4 17 5 1 2.</_></rects>
      <tilted>0</tilted></_>
    <_>
      <rects>
        <_>
          4 18 11 2 -1.</_>
        <_>
          4 19 11 1 2.</_></rects>
      <tilted>0</tilted></_>
    <_>
      <rects>
        <_>
          4 18 13 2 -1.</_>
        <_>
          4 19 13 1 2.</_></rects>
      <tilted>0</tilted></_>
    <_>
      <rects>
        <_>
          4 18 15 2 -1.</_>
        <_>
          4 19 15 1 2.</_></rects>
      <tilted>0</tilted></_>
    <_>
      <rects>
        <_>
          5 2 8 10 -1.</_>
        <_>
          5 7 8 5 2.</_></rects>
      <tilted>0</tilted></_>
    <_>
      <rects>
        <_>
          5 3 7 4 -1.</_>
        <_>
          5 5 7 2 2.</_></rects>
      <tilted>0</tilted></_>
    <_>
      <rects>
        <_>
          5 3 14 14 -1.</_>
        <_>
          5 3 7 7 2.</_>
        <_>
          12 10 7 7 2.</_></rects>
      <tilted>0</tilted></_>
    <_>
      <rects>
        <_>
          5 13 10 6 -1.</_>
        <_>
          5 16 10 3 2.</_></rects>
      <tilted>0</tilted></_>
    <_>
      <rects>
        <_>
          6 0 3 6 -1.</_>
        <_>
          6 2 3 2 3.</_></rects>
      <tilted>0</tilted></_>
    <_>
      <rects>
        <_>
          6 0 6 4 -1.</_>
        <_>
          6 2 6 2 2.</_></rects>
      <tilted>0</tilted></_>
    <_>
      <rects>
        <_>
          6 1 9 2 -1.</_>
        <_>
          6 2 9 1 2.</_></rects>
      <tilted>0</tilted></_>
    <_>
      <rects>
        <_>
          6 3 4 4 -1.</_>
        <_>
          6 5 4 2 2.</_></rects>
      <tilted>0</tilted></_>
    <_>
      <rects>
        <_>
          6 3 6 6 -1.</_>
        <_>
          6 6 6 3 2.</_></rects>
      <tilted>0</tilted></_>
    <_>
      <rects>
        <_>
          6 6 12 11 -1.</_>
        <_>
          12 6 6 11 2.</_></rects>
      <tilted>0</tilted></_>
    <_>
      <rects>
        <_>
          6 8 12 8 -1.</_>
        <_>
          6 8 6 4 2.</_>
        <_>
          12 12 6 4 2.</_></rects>
      <tilted>0</tilted></_>
    <_>
      <rects>
        <_>
          6 18 8 2 -1.</_>
        <_>
          6 19 8 1 2.</_></rects>
      <tilted>0</tilted></_>
    <_>
      <rects>
        <_>
          7 5 2 6 -1.</_>
        <_>
          7 7 2 2 3.</_></rects>
      <tilted>0</tilted></_>
    <_>
      <rects>
        <_>
          7 5 4 12 -1.</_>
        <_>
          7 9 4 4 3.</_></rects>
      <tilted>0</tilted></_>
    <_>
      <rects>
        <_>
          7 8 8 4 -1.</_>
        <_>
          11 8 4 4 2.</_></rects>
      <tilted>0</tilted></_>
    <_>
      <rects>
        <_>
          7 10 10 6 -1.</_>
        <_>
          7 10 5 3 2.</_>
        <_>
          12 13 5 3 2.</_></rects>
      <tilted>0</tilted></_>
    <_>
      <rects>
        <_>
          7 10 6 9 -1.</_>
        <_>
          7 13 6 3 3.</_></rects>
      <tilted>0</tilted></_>
    <_>
      <rects>
        <_>
          8 1 4 6 -1.</_>
        <_>
          8 3 4 2 3.</_></rects>
      <tilted>0</tilted></_>
    <_>
      <rects>
        <_>
          8 3 4 2 -1.</_>
        <_>
          8 3 2 1 2.</_>
        <_>
          10 4 2 1 2.</_></rects>
      <tilted>0</tilted></_>
    <_>
      <rects>
        <_>
          8 5 1 6 -1.</_>
        <_>
          8 7 1 2 3.</_></rects>
      <tilted>0</tilted></_>
    <_>
      <rects>
        <_>
          8 10 7 4 -1.</_>
        <_>
          8 12 7 2 2.</_></rects>
      <tilted>0</tilted></_>
    <_>
      <rects>
        <_>
          9 2 2 3 -1.</_>
        <_>
          9 3 2 1 3.</_></rects>
      <tilted>0</tilted></_>
    <_>
      <rects>
        <_>
          9 16 4 3 -1.</_>
        <_>
          9 17 4 1 3.</_></rects>
      <tilted>0</tilted></_>
    <_>
      <rects>
        <_>
          10 1 6 4 -1.</_>
        <_>
          10 1 3 2 2.</_>
        <_>
          13 3 3 2 2.</_></rects>
      <tilted>0</tilted></_>
    <_>
      <rects>
        <_>
          10 3 4 2 -1.</_>
        <_>
          12 3 2 2 2.</_></rects>
      <tilted>0</tilted></_>
    <_>
      <rects>
        <_>
          10 11 4 2 -1.</_>
        <_>
          12 11 2 2 2.</_></rects>
      <tilted>0</tilted></_>
    <_>
      <rects>
        <_>
          11 11 3 1 -1.</_>
        <_>
          12 11 1 1 3.</_></rects>
      <tilted>0</tilted></_>
    <_>
      <rects>
        <_>
          12 13 8 4 -1.</_>
        <_>
          12 13 4 2 2.</_>
        <_>
          16 15 4 2 2.</_></rects>
      <tilted>0</tilted></_>
    <_>
      <rects>
        <_>
          13 10 3 2 -1.</_>
        <_>
          14 10 1 2 3.</_></rects>
      <tilted>0</tilted></_>
    <_>
      <rects>
        <_>
          13 12 6 6 -1.</_>
        <_>
          15 12 2 6 3.</_></rects>
      <tilted>0</tilted></_>
    <_>
      <rects>
        <_>
          13 12 6 6 -1.</_>
        <_>
          13 12 3 3 2.</_>
        <_>
          16 15 3 3 2.</_></rects>
      <tilted>0</tilted></_>
    <_>
      <rects>
        <_>
          15 13 1 6 -1.</_>
        <_>
          15 15 1 2 3.</_></rects>
      <tilted>0</tilted></_></features></cascade>
</opencv_storage>
